<?xml version="1.0"?>
<opencv_storage>
<stage15>
  <maxWeakCount>46</maxWeakCount>
  <stageThreshold>-1.6590363979339600e+00</stageThreshold>
  <weakClassifiers>
    <_>
      <internalNodes>
        0 -1 1210194 4.4311804231256247e-04</internalNodes>
      <leafValues>
        -6.7527675628662109e-01 6.8421053886413574e-01</leafValues></_>
    <_>
      <internalNodes>
        0 -1 2924280 -3.3690776035655290e-06</internalNodes>
      <leafValues>
        -2.4877560790628195e-03 -3.2596579194068909e-01</leafValues></_>
    <_>
      <internalNodes>
        0 -1 3242737 -2.4981016758829355e-04</internalNodes>
      <leafValues>
        1.9462838768959045e-01 -1.4359380304813385e-01</leafValues></_>
    <_>
      <internalNodes>
        0 -1 3687122 -1.6479354235343635e-04</internalNodes>
      <leafValues>
        -9.2713260650634766e-01 2.8172355145215988e-02</leafValues></_>
    <_>
      <internalNodes>
        0 -1 3240211 3.4780881833285093e-04</internalNodes>
      <leafValues>
        -1.3078232109546661e-01 2.0119640231132507e-01</leafValues></_>
    <_>
      <internalNodes>
        0 -1 4744906 7.0984271587803960e-05</internalNodes>
      <leafValues>
        -8.3511993288993835e-02 2.9060927033424377e-01</leafValues></_>
    <_>
      <internalNodes>
        0 -1 1387856 -1.7846251694209059e-06</internalNodes>
      <leafValues>
        1.8343926966190338e-01 -1.2854467332363129e-01</leafValues></_>
    <_>
      <internalNodes>
        0 -1 3958177 -6.9911405444145203e-02</internalNodes>
      <leafValues>
        -8.3035498857498169e-01 6.0312945395708084e-02</leafValues></_>
    <_>
      <internalNodes>
        0 -1 1631534 6.9234083639457822e-05</internalNodes>
      <leafValues>
        -5.3495787084102631e-02 4.5390325784683228e-01</leafValues></_>
    <_>
      <internalNodes>
        0 -1 4946806 1.9062609908360173e-06</internalNodes>
      <leafValues>
        -1.5061402320861816e-01 1.7440824210643768e-01</leafValues></_>
    <_>
      <internalNodes>
        0 -1 1418041 -1.9354403018951416e-02</internalNodes>
      <leafValues>
        1.2388288229703903e-01 -2.1053406596183777e-01</leafValues></_>
    <_>
      <internalNodes>
        0 -1 3940821 1.5929847722873092e-04</internalNodes>
      <leafValues>
        3.3744126558303833e-02 -8.5019695758819580e-01</leafValues></_>
    <_>
      <internalNodes>
        0 -1 2288850 8.7543003261089325e-02</internalNodes>
      <leafValues>
        -5.9430927038192749e-02 4.8557233810424805e-01</leafValues></_>
    <_>
      <internalNodes>
        0 -1 3822223 8.6950039258226752e-04</internalNodes>
      <leafValues>
        -2.4433492124080658e-01 1.2203342467546463e-01</leafValues></_>
    <_>
      <internalNodes>
        0 -1 4379476 3.3852116757771000e-05</internalNodes>
      <leafValues>
        8.2419343292713165e-02 -2.8686740994453430e-01</leafValues></_>
    <_>
      <internalNodes>
        0 -1 4379481 -3.8392699934775010e-05</internalNodes>
      <leafValues>
        -3.1331142783164978e-01 1.0056193917989731e-01</leafValues></_>
    <_>
      <internalNodes>
        0 -1 4883984 -1.7792851849662839e-06</internalNodes>
      <leafValues>
        1.7960722744464874e-01 -1.4266450703144073e-01</leafValues></_>
    <_>
      <internalNodes>
        0 -1 3244662 -1.9028366659767926e-04</internalNodes>
      <leafValues>
        3.1311666965484619e-01 -7.9927816987037659e-02</leafValues></_>
    <_>
      <internalNodes>
        0 -1 344583 -1.0927546536549926e-03</internalNodes>
      <leafValues>
        1.7570839822292328e-01 -1.4355203509330750e-01</leafValues></_>
    <_>
      <internalNodes>
        0 -1 1962156 -7.7431424870155752e-05</internalNodes>
      <leafValues>
        2.4117046594619751e-01 -1.0180144011974335e-01</leafValues></_>
    <_>
      <internalNodes>
        0 -1 1951612 -3.3182604238390923e-04</internalNodes>
      <leafValues>
        2.8723353147506714e-01 -9.7107894718647003e-02</leafValues></_>
    <_>
      <internalNodes>
        0 -1 3383509 1.0676998645067215e-03</internalNodes>
      <leafValues>
        3.5059411078691483e-02 -7.4765610694885254e-01</leafValues></_>
    <_>
      <internalNodes>
        0 -1 4094464 -5.8155722217634320e-04</internalNodes>
      <leafValues>
        3.1538829207420349e-01 -8.3084896206855774e-02</leafValues></_>
    <_>
      <internalNodes>
        0 -1 4939817 -1.8868159941121121e-06</internalNodes>
      <leafValues>
        1.9183522462844849e-01 -1.2940956652164459e-01</leafValues></_>
    <_>
      <internalNodes>
        0 -1 14006 5.3021293133497238e-03</internalNodes>
      <leafValues>
        5.6519374251365662e-02 -4.1849461197853088e-01</leafValues></_>
    <_>
      <internalNodes>
        0 -1 3233974 2.9380662454059348e-05</internalNodes>
      <leafValues>
        5.5341150611639023e-02 -4.6355378627777100e-01</leafValues></_>
    <_>
      <internalNodes>
        0 -1 3224253 -1.2521600583568215e-03</internalNodes>
      <leafValues>
        2.5453999638557434e-01 -1.0477560758590698e-01</leafValues></_>
    <_>
      <internalNodes>
        0 -1 134848 -1.5615619486197829e-04</internalNodes>
      <leafValues>
        -2.6037946343421936e-01 1.0139930248260498e-01</leafValues></_>
    <_>
      <internalNodes>
        0 -1 192675 3.5870500141754746e-05</internalNodes>
      <leafValues>
        -7.1960873901844025e-02 3.8623356819152832e-01</leafValues></_>
    <_>
      <internalNodes>
        0 -1 2585491 1.2276996858417988e-04</internalNodes>
      <leafValues>
        8.0722302198410034e-02 -3.3208009600639343e-01</leafValues></_>
    <_>
      <internalNodes>
        0 -1 4870791 -9.1328402049839497e-05</internalNodes>
      <leafValues>
        4.9891415238380432e-01 -5.3977880626916885e-02</leafValues></_>
    <_>
      <internalNodes>
        0 -1 4842228 1.9553667698346544e-06</internalNodes>
      <leafValues>
        -1.2475288659334183e-01 1.9093647599220276e-01</leafValues></_>
    <_>
      <internalNodes>
        0 -1 4935694 1.1694476706907153e-03</internalNodes>
      <leafValues>
        6.6356845200061798e-02 -3.7378162145614624e-01</leafValues></_>
    <_>
      <internalNodes>
        0 -1 779680 2.9253429966047406e-04</internalNodes>
      <leafValues>
        -3.9074461907148361e-02 6.7905151844024658e-01</leafValues></_>
    <_>
      <internalNodes>
        0 -1 3612121 1.8947371840476990e-01</internalNodes>
      <leafValues>
        -6.2788277864456177e-02 3.6800405383110046e-01</leafValues></_>
    <_>
      <internalNodes>
        0 -1 1724942 -2.6704312767833471e-04</internalNodes>
      <leafValues>
        2.1946434676647186e-01 -1.2043311446905136e-01</leafValues></_>
    <_>
      <internalNodes>
        0 -1 3248346 -4.5420057140290737e-03</internalNodes>
      <leafValues>
        -3.7080034613609314e-01 7.0162825286388397e-02</leafValues></_>
    <_>
      <internalNodes>
        0 -1 3452042 -1.2806770391762257e-03</internalNodes>
      <leafValues>
        2.0592878758907318e-01 -1.2487702071666718e-01</leafValues></_>
    <_>
      <internalNodes>
        0 -1 3277449 1.2008848134428263e-03</internalNodes>
      <leafValues>
        -1.0428240150213242e-01 2.9630970954895020e-01</leafValues></_>
    <_>
      <internalNodes>
        0 -1 4829612 1.8952275695482967e-06</internalNodes>
      <leafValues>
        -1.5628789365291595e-01 1.6645483672618866e-01</leafValues></_>
    <_>
      <internalNodes>
        0 -1 3550633 -4.4384069042280316e-04</internalNodes>
      <leafValues>
        1.7508225142955780e-01 -1.4481474459171295e-01</leafValues></_>
    <_>
      <internalNodes>
        0 -1 2216714 -1.7494809580966830e-03</internalNodes>
      <leafValues>
        -8.5818666219711304e-01 3.2202277332544327e-02</leafValues></_>
    <_>
      <internalNodes>
        0 -1 4466943 -2.2150095901452005e-04</internalNodes>
      <leafValues>
        4.6514314413070679e-01 -6.7770153284072876e-02</leafValues></_>
    <_>
      <internalNodes>
        0 -1 4688483 1.3455022126436234e-03</internalNodes>
      <leafValues>
        3.5375423729419708e-02 -8.4370398521423340e-01</leafValues></_>
    <_>
      <internalNodes>
        0 -1 2068803 2.0075422071386129e-06</internalNodes>
      <leafValues>
        -1.6784240305423737e-01 1.4399847388267517e-01</leafValues></_>
    <_>
      <internalNodes>
        0 -1 4600475 2.3011332814348862e-05</internalNodes>
      <leafValues>
        7.3994085192680359e-02 -3.3814004063606262e-01</leafValues></_></weakClassifiers></stage15>
</opencv_storage>
